#pragma once
#include <cstdarg>
namespace Eloquent {
    namespace ML {
        namespace Port {
            class RandomForest {
                public:
                    /**
                    * Predict class for features vector
                    */
                    int predict(float *x) {
                        uint8_t votes[2] = { 0 };
                        // tree #1
                        if (x[13] <= -1332.0) {
                            if (x[4] <= 1964.0) {
                                if (x[27] <= 1980.0) {
                                    if (x[3] <= -5897.5) {
                                        votes[1] += 1;
                                    }

                                    else {
                                        if (x[2] <= 3348.0) {
                                            if (x[1] <= 1876.0) {
                                                votes[0] += 1;
                                            }

                                            else {
                                                votes[1] += 1;
                                            }
                                        }

                                        else {
                                            votes[1] += 1;
                                        }
                                    }
                                }

                                else {
                                    votes[1] += 1;
                                }
                            }

                            else {
                                votes[1] += 1;
                            }
                        }

                        else {
                            if (x[19] <= 1722.0) {
                                if (x[18] <= -6458.0) {
                                    if (x[14] <= 1220.0) {
                                        if (x[23] <= 2550.0) {
                                            votes[1] += 1;
                                        }

                                        else {
                                            if (x[14] <= -8304.0) {
                                                votes[1] += 1;
                                            }

                                            else {
                                                votes[0] += 1;
                                            }
                                        }
                                    }

                                    else {
                                        votes[1] += 1;
                                    }
                                }

                                else {
                                    if (x[3] <= -12124.0) {
                                        if (x[29] <= -1128.0) {
                                            votes[1] += 1;
                                        }

                                        else {
                                            if (x[18] <= 4122.0) {
                                                votes[0] += 1;
                                            }

                                            else {
                                                votes[1] += 1;
                                            }
                                        }
                                    }

                                    else {
                                        if (x[5] <= -6350.0) {
                                            if (x[27] <= 7446.0) {
                                                if (x[18] <= 1490.0) {
                                                    votes[0] += 1;
                                                }

                                                else {
                                                    votes[1] += 1;
                                                }
                                            }

                                            else {
                                                votes[1] += 1;
                                            }
                                        }

                                        else {
                                            if (x[1] <= 5092.0) {
                                                if (x[26] <= 26496.0) {
                                                    if (x[23] <= 3188.0) {
                                                        votes[0] += 1;
                                                    }

                                                    else {
                                                        if (x[24] <= -9112.0) {
                                                            votes[1] += 1;
                                                        }

                                                        else {
                                                            votes[0] += 1;
                                                        }
                                                    }
                                                }

                                                else {
                                                    votes[1] += 1;
                                                }
                                            }

                                            else {
                                                if (x[11] <= -3752.0) {
                                                    votes[1] += 1;
                                                }

                                                else {
                                                    votes[0] += 1;
                                                }
                                            }
                                        }
                                    }
                                }
                            }

                            else {
                                if (x[16] <= -726.0) {
                                    if (x[3] <= -36.0) {
                                        if (x[29] <= -640.0) {
                                            votes[1] += 1;
                                        }

                                        else {
                                            if (x[20] <= -3544.0) {
                                                votes[1] += 1;
                                            }

                                            else {
                                                votes[0] += 1;
                                            }
                                        }
                                    }

                                    else {
                                        votes[1] += 1;
                                    }
                                }

                                else {
                                    if (x[6] <= 6136.0) {
                                        votes[0] += 1;
                                    }

                                    else {
                                        votes[1] += 1;
                                    }
                                }
                            }
                        }

                        // tree #2
                        if (x[28] <= 1264.0) {
                            if (x[27] <= -6470.0) {
                                if (x[17] <= 896.0) {
                                    if (x[8] <= -2008.0) {
                                        if (x[28] <= -1718.0) {
                                            votes[1] += 1;
                                        }

                                        else {
                                            votes[0] += 1;
                                        }
                                    }

                                    else {
                                        votes[1] += 1;
                                    }
                                }

                                else {
                                    votes[1] += 1;
                                }
                            }

                            else {
                                if (x[20] <= -7342.0) {
                                    if (x[9] <= 1944.0) {
                                        if (x[28] <= -818.0) {
                                            votes[1] += 1;
                                        }

                                        else {
                                            if (x[2] <= 18356.0) {
                                                votes[0] += 1;
                                            }

                                            else {
                                                votes[1] += 1;
                                            }
                                        }
                                    }

                                    else {
                                        votes[1] += 1;
                                    }
                                }

                                else {
                                    if (x[18] <= 8012.0) {
                                        if (x[4] <= 6246.0) {
                                            if (x[18] <= -11440.0) {
                                                if (x[9] <= 766.0) {
                                                    votes[1] += 1;
                                                }

                                                else {
                                                    votes[0] += 1;
                                                }
                                            }

                                            else {
                                                if (x[7] <= 12774.0) {
                                                    votes[0] += 1;
                                                }

                                                else {
                                                    votes[1] += 1;
                                                }
                                            }
                                        }

                                        else {
                                            votes[1] += 1;
                                        }
                                    }

                                    else {
                                        if (x[21] <= -9986.0) {
                                            votes[0] += 1;
                                        }

                                        else {
                                            if (x[17] <= -4596.0) {
                                                if (x[6] <= -952.0) {
                                                    votes[1] += 1;
                                                }

                                                else {
                                                    votes[0] += 1;
                                                }
                                            }

                                            else {
                                                if (x[2] <= -1748.0) {
                                                    if (x[12] <= -9036.0) {
                                                        votes[0] += 1;
                                                    }

                                                    else {
                                                        votes[1] += 1;
                                                    }
                                                }

                                                else {
                                                    votes[1] += 1;
                                                }
                                            }
                                        }
                                    }
                                }
                            }
                        }

                        else {
                            if (x[14] <= 704.0) {
                                if (x[18] <= 1068.0) {
                                    if (x[28] <= 6864.0) {
                                        if (x[12] <= -11914.0) {
                                            votes[1] += 1;
                                        }

                                        else {
                                            if (x[0] <= 24678.0) {
                                                votes[0] += 1;
                                            }

                                            else {
                                                votes[1] += 1;
                                            }
                                        }
                                    }

                                    else {
                                        if (x[27] <= 1562.0) {
                                            votes[1] += 1;
                                        }

                                        else {
                                            if (x[22] <= -3808.0) {
                                                votes[1] += 1;
                                            }

                                            else {
                                                votes[0] += 1;
                                            }
                                        }
                                    }
                                }

                                else {
                                    if (x[14] <= -700.0) {
                                        votes[1] += 1;
                                    }

                                    else {
                                        if (x[1] <= -2666.0) {
                                            votes[1] += 1;
                                        }

                                        else {
                                            votes[0] += 1;
                                        }
                                    }
                                }
                            }

                            else {
                                votes[1] += 1;
                            }
                        }

                        // tree #3
                        if (x[13] <= 2512.0) {
                            if (x[8] <= 1702.0) {
                                if (x[13] <= -1458.0) {
                                    if (x[2] <= -2086.0) {
                                        votes[1] += 1;
                                    }

                                    else {
                                        if (x[25] <= 5010.0) {
                                            if (x[2] <= 4672.0) {
                                                if (x[4] <= -4282.0) {
                                                    votes[1] += 1;
                                                }

                                                else {
                                                    votes[0] += 1;
                                                }
                                            }

                                            else {
                                                votes[1] += 1;
                                            }
                                        }

                                        else {
                                            votes[1] += 1;
                                        }
                                    }
                                }

                                else {
                                    if (x[11] <= 1666.0) {
                                        if (x[24] <= 18608.0) {
                                            votes[0] += 1;
                                        }

                                        else {
                                            if (x[7] <= -660.0) {
                                                votes[1] += 1;
                                            }

                                            else {
                                                votes[0] += 1;
                                            }
                                        }
                                    }

                                    else {
                                        if (x[12] <= 5272.0) {
                                            if (x[16] <= -1034.0) {
                                                votes[1] += 1;
                                            }

                                            else {
                                                if (x[2] <= 1942.0) {
                                                    votes[0] += 1;
                                                }

                                                else {
                                                    votes[1] += 1;
                                                }
                                            }
                                        }

                                        else {
                                            votes[1] += 1;
                                        }
                                    }
                                }
                            }

                            else {
                                if (x[16] <= 1254.0) {
                                    if (x[29] <= 986.0) {
                                        if (x[9] <= -6929.5) {
                                            votes[1] += 1;
                                        }

                                        else {
                                            if (x[9] <= 6354.0) {
                                                votes[0] += 1;
                                            }

                                            else {
                                                votes[1] += 1;
                                            }
                                        }
                                    }

                                    else {
                                        votes[1] += 1;
                                    }
                                }

                                else {
                                    votes[1] += 1;
                                }
                            }
                        }

                        else {
                            if (x[15] <= -1556.0) {
                                votes[1] += 1;
                            }

                            else {
                                if (x[18] <= -3134.0) {
                                    if (x[20] <= -3786.0) {
                                        if (x[10] <= -1468.0) {
                                            votes[0] += 1;
                                        }

                                        else {
                                            votes[1] += 1;
                                        }
                                    }

                                    else {
                                        votes[1] += 1;
                                    }
                                }

                                else {
                                    if (x[1] <= 786.0) {
                                        votes[0] += 1;
                                    }

                                    else {
                                        votes[1] += 1;
                                    }
                                }
                            }
                        }

                        // tree #4
                        if (x[20] <= -6162.0) {
                            if (x[23] <= -14.0) {
                                if (x[10] <= -1924.0) {
                                    votes[1] += 1;
                                }

                                else {
                                    if (x[9] <= 866.0) {
                                        if (x[22] <= 3570.0) {
                                            votes[0] += 1;
                                        }

                                        else {
                                            votes[1] += 1;
                                        }
                                    }

                                    else {
                                        votes[1] += 1;
                                    }
                                }
                            }

                            else {
                                if (x[6] <= 18190.0) {
                                    votes[1] += 1;
                                }

                                else {
                                    if (x[6] <= 21968.0) {
                                        votes[0] += 1;
                                    }

                                    else {
                                        votes[1] += 1;
                                    }
                                }
                            }
                        }

                        else {
                            if (x[4] <= -2470.0) {
                                if (x[20] <= 526.0) {
                                    if (x[25] <= 552.0) {
                                        if (x[22] <= 122.0) {
                                            votes[0] += 1;
                                        }

                                        else {
                                            votes[1] += 1;
                                        }
                                    }

                                    else {
                                        votes[1] += 1;
                                    }
                                }

                                else {
                                    votes[1] += 1;
                                }
                            }

                            else {
                                if (x[10] <= 1722.0) {
                                    if (x[18] <= 12512.0) {
                                        if (x[1] <= -1696.0) {
                                            if (x[29] <= -746.0) {
                                                votes[1] += 1;
                                            }

                                            else {
                                                votes[0] += 1;
                                            }
                                        }

                                        else {
                                            if (x[9] <= -16656.0) {
                                                votes[1] += 1;
                                            }

                                            else {
                                                if (x[22] <= 9144.0) {
                                                    if (x[4] <= -1228.0) {
                                                        if (x[19] <= -426.0) {
                                                            votes[1] += 1;
                                                        }

                                                        else {
                                                            votes[0] += 1;
                                                        }
                                                    }

                                                    else {
                                                        if (x[21] <= -6708.0) {
                                                            if (x[3] <= 4198.0) {
                                                                votes[0] += 1;
                                                            }

                                                            else {
                                                                votes[1] += 1;
                                                            }
                                                        }

                                                        else {
                                                            votes[0] += 1;
                                                        }
                                                    }
                                                }

                                                else {
                                                    votes[1] += 1;
                                                }
                                            }
                                        }
                                    }

                                    else {
                                        if (x[12] <= -13142.0) {
                                            if (x[25] <= 2742.0) {
                                                votes[0] += 1;
                                            }

                                            else {
                                                votes[1] += 1;
                                            }
                                        }

                                        else {
                                            votes[1] += 1;
                                        }
                                    }
                                }

                                else {
                                    if (x[6] <= -2916.0) {
                                        if (x[13] <= -144.0) {
                                            votes[1] += 1;
                                        }

                                        else {
                                            if (x[13] <= 1994.0) {
                                                votes[0] += 1;
                                            }

                                            else {
                                                votes[1] += 1;
                                            }
                                        }
                                    }

                                    else {
                                        if (x[28] <= 2268.0) {
                                            if (x[9] <= -26672.0) {
                                                votes[1] += 1;
                                            }

                                            else {
                                                votes[0] += 1;
                                            }
                                        }

                                        else {
                                            votes[1] += 1;
                                        }
                                    }
                                }
                            }
                        }

                        // tree #5
                        if (x[24] <= -6680.0) {
                            if (x[11] <= -2084.0) {
                                votes[1] += 1;
                            }

                            else {
                                if (x[16] <= 1302.0) {
                                    if (x[3] <= -16.0) {
                                        if (x[26] <= -2278.0) {
                                            if (x[16] <= -360.0) {
                                                votes[1] += 1;
                                            }

                                            else {
                                                votes[0] += 1;
                                            }
                                        }

                                        else {
                                            votes[0] += 1;
                                        }
                                    }

                                    else {
                                        votes[1] += 1;
                                    }
                                }

                                else {
                                    votes[1] += 1;
                                }
                            }
                        }

                        else {
                            if (x[16] <= -1116.0) {
                                if (x[25] <= 248.0) {
                                    if (x[13] <= 4648.0) {
                                        if (x[27] <= 24466.0) {
                                            votes[0] += 1;
                                        }

                                        else {
                                            votes[1] += 1;
                                        }
                                    }

                                    else {
                                        if (x[25] <= -1536.0) {
                                            votes[1] += 1;
                                        }

                                        else {
                                            votes[0] += 1;
                                        }
                                    }
                                }

                                else {
                                    if (x[1] <= -3808.0) {
                                        if (x[24] <= -810.0) {
                                            votes[0] += 1;
                                        }

                                        else {
                                            votes[1] += 1;
                                        }
                                    }

                                    else {
                                        votes[1] += 1;
                                    }
                                }
                            }

                            else {
                                if (x[18] <= -6566.0) {
                                    if (x[4] <= 1128.0) {
                                        if (x[12] <= -2164.0) {
                                            votes[1] += 1;
                                        }

                                        else {
                                            if (x[12] <= 7882.0) {
                                                votes[0] += 1;
                                            }

                                            else {
                                                votes[1] += 1;
                                            }
                                        }
                                    }

                                    else {
                                        votes[1] += 1;
                                    }
                                }

                                else {
                                    if (x[0] <= 14454.0) {
                                        if (x[25] <= 6864.0) {
                                            if (x[22] <= 11326.0) {
                                                if (x[17] <= -14944.0) {
                                                    votes[1] += 1;
                                                }

                                                else {
                                                    if (x[8] <= 26444.0) {
                                                        if (x[3] <= -11578.0) {
                                                            if (x[23] <= 1478.0) {
                                                                votes[0] += 1;
                                                            }

                                                            else {
                                                                votes[1] += 1;
                                                            }
                                                        }

                                                        else {
                                                            votes[0] += 1;
                                                        }
                                                    }

                                                    else {
                                                        votes[1] += 1;
                                                    }
                                                }
                                            }

                                            else {
                                                votes[1] += 1;
                                            }
                                        }

                                        else {
                                            votes[1] += 1;
                                        }
                                    }

                                    else {
                                        if (x[23] <= 1422.0) {
                                            if (x[22] <= 1364.0) {
                                                votes[0] += 1;
                                            }

                                            else {
                                                votes[1] += 1;
                                            }
                                        }

                                        else {
                                            votes[1] += 1;
                                        }
                                    }
                                }
                            }
                        }

                        // tree #6
                        if (x[16] <= -1332.0) {
                            if (x[2] <= -1446.0) {
                                votes[1] += 1;
                            }

                            else {
                                if (x[24] <= -6328.0) {
                                    if (x[17] <= -11442.0) {
                                        if (x[28] <= 2994.0) {
                                            votes[0] += 1;
                                        }

                                        else {
                                            votes[1] += 1;
                                        }
                                    }

                                    else {
                                        votes[1] += 1;
                                    }
                                }

                                else {
                                    if (x[2] <= 2630.0) {
                                        if (x[13] <= 7248.0) {
                                            if (x[7] <= -8614.0) {
                                                votes[1] += 1;
                                            }

                                            else {
                                                if (x[20] <= -9226.0) {
                                                    votes[1] += 1;
                                                }

                                                else {
                                                    votes[0] += 1;
                                                }
                                            }
                                        }

                                        else {
                                            votes[1] += 1;
                                        }
                                    }

                                    else {
                                        votes[1] += 1;
                                    }
                                }
                            }
                        }

                        else {
                            if (x[3] <= -7170.0) {
                                if (x[0] <= 8714.0) {
                                    if (x[20] <= 1264.0) {
                                        if (x[24] <= -1844.0) {
                                            votes[1] += 1;
                                        }

                                        else {
                                            if (x[18] <= 8012.0) {
                                                votes[0] += 1;
                                            }

                                            else {
                                                votes[1] += 1;
                                            }
                                        }
                                    }

                                    else {
                                        votes[1] += 1;
                                    }
                                }

                                else {
                                    votes[1] += 1;
                                }
                            }

                            else {
                                if (x[16] <= 4226.0) {
                                    if (x[6] <= -10138.0) {
                                        votes[1] += 1;
                                    }

                                    else {
                                        if (x[27] <= 20788.0) {
                                            if (x[16] <= -544.0) {
                                                if (x[1] <= 312.0) {
                                                    votes[0] += 1;
                                                }

                                                else {
                                                    votes[1] += 1;
                                                }
                                            }

                                            else {
                                                if (x[13] <= -2278.0) {
                                                    if (x[13] <= -2690.0) {
                                                        votes[0] += 1;
                                                    }

                                                    else {
                                                        votes[1] += 1;
                                                    }
                                                }

                                                else {
                                                    votes[0] += 1;
                                                }
                                            }
                                        }

                                        else {
                                            if (x[16] <= -158.0) {
                                                votes[1] += 1;
                                            }

                                            else {
                                                votes[0] += 1;
                                            }
                                        }
                                    }
                                }

                                else {
                                    if (x[8] <= 1880.0) {
                                        if (x[24] <= 9462.0) {
                                            votes[0] += 1;
                                        }

                                        else {
                                            votes[1] += 1;
                                        }
                                    }

                                    else {
                                        votes[1] += 1;
                                    }
                                }
                            }
                        }

                        // tree #7
                        if (x[15] <= 5986.0) {
                            if (x[18] <= 3630.0) {
                                if (x[4] <= 3510.0) {
                                    if (x[2] <= 18600.0) {
                                        if (x[20] <= 10080.0) {
                                            if (x[3] <= -14190.0) {
                                                if (x[18] <= -17524.0) {
                                                    votes[1] += 1;
                                                }

                                                else {
                                                    if (x[11] <= -15444.0) {
                                                        votes[0] += 1;
                                                    }

                                                    else {
                                                        votes[1] += 1;
                                                    }
                                                }
                                            }

                                            else {
                                                if (x[6] <= -26068.0) {
                                                    votes[1] += 1;
                                                }

                                                else {
                                                    if (x[0] <= 14040.0) {
                                                        if (x[12] <= 12028.0) {
                                                            if (x[6] <= -9134.0) {
                                                                if (x[6] <= -9636.0) {
                                                                    votes[0] += 1;
                                                                }

                                                                else {
                                                                    votes[1] += 1;
                                                                }
                                                            }

                                                            else {
                                                                votes[0] += 1;
                                                            }
                                                        }

                                                        else {
                                                            if (x[19] <= -594.0) {
                                                                votes[1] += 1;
                                                            }

                                                            else {
                                                                votes[0] += 1;
                                                            }
                                                        }
                                                    }

                                                    else {
                                                        if (x[12] <= 3734.0) {
                                                            votes[0] += 1;
                                                        }

                                                        else {
                                                            votes[1] += 1;
                                                        }
                                                    }
                                                }
                                            }
                                        }

                                        else {
                                            if (x[27] <= 9778.0) {
                                                if (x[12] <= 7954.0) {
                                                    votes[0] += 1;
                                                }

                                                else {
                                                    votes[1] += 1;
                                                }
                                            }

                                            else {
                                                votes[1] += 1;
                                            }
                                        }
                                    }

                                    else {
                                        votes[1] += 1;
                                    }
                                }

                                else {
                                    if (x[24] <= 6294.0) {
                                        if (x[7] <= -762.0) {
                                            votes[1] += 1;
                                        }

                                        else {
                                            votes[0] += 1;
                                        }
                                    }

                                    else {
                                        votes[1] += 1;
                                    }
                                }
                            }

                            else {
                                if (x[15] <= 1080.0) {
                                    if (x[28] <= -114.0) {
                                        votes[1] += 1;
                                    }

                                    else {
                                        if (x[9] <= 708.0) {
                                            if (x[12] <= 4799.5) {
                                                if (x[9] <= -32854.0) {
                                                    votes[1] += 1;
                                                }

                                                else {
                                                    votes[0] += 1;
                                                }
                                            }

                                            else {
                                                votes[1] += 1;
                                            }
                                        }

                                        else {
                                            votes[1] += 1;
                                        }
                                    }
                                }

                                else {
                                    votes[0] += 1;
                                }
                            }
                        }

                        else {
                            if (x[18] <= -5552.0) {
                                if (x[11] <= -12764.0) {
                                    if (x[12] <= -4484.0) {
                                        votes[1] += 1;
                                    }

                                    else {
                                        votes[0] += 1;
                                    }
                                }

                                else {
                                    votes[1] += 1;
                                }
                            }

                            else {
                                if (x[19] <= -2906.0) {
                                    votes[1] += 1;
                                }

                                else {
                                    if (x[16] <= -1042.0) {
                                        votes[1] += 1;
                                    }

                                    else {
                                        if (x[29] <= 9930.0) {
                                            votes[0] += 1;
                                        }

                                        else {
                                            votes[1] += 1;
                                        }
                                    }
                                }
                            }
                        }

                        // tree #8
                        if (x[13] <= 1902.0) {
                            if (x[4] <= -1460.0) {
                                if (x[12] <= -1348.0) {
                                    votes[1] += 1;
                                }

                                else {
                                    if (x[14] <= -1920.0) {
                                        votes[1] += 1;
                                    }

                                    else {
                                        if (x[25] <= 858.0) {
                                            votes[0] += 1;
                                        }

                                        else {
                                            votes[1] += 1;
                                        }
                                    }
                                }
                            }

                            else {
                                if (x[13] <= -990.0) {
                                    if (x[7] <= -680.0) {
                                        if (x[13] <= -1106.0) {
                                            votes[1] += 1;
                                        }

                                        else {
                                            if (x[0] <= 9765.5) {
                                                votes[0] += 1;
                                            }

                                            else {
                                                votes[1] += 1;
                                            }
                                        }
                                    }

                                    else {
                                        if (x[16] <= 4702.0) {
                                            if (x[7] <= 7436.0) {
                                                votes[0] += 1;
                                            }

                                            else {
                                                votes[1] += 1;
                                            }
                                        }

                                        else {
                                            votes[1] += 1;
                                        }
                                    }
                                }

                                else {
                                    if (x[16] <= -2884.0) {
                                        if (x[26] <= -1192.0) {
                                            votes[1] += 1;
                                        }

                                        else {
                                            votes[0] += 1;
                                        }
                                    }

                                    else {
                                        if (x[10] <= 7782.0) {
                                            if (x[22] <= -10800.0) {
                                                votes[1] += 1;
                                            }

                                            else {
                                                if (x[19] <= -696.0) {
                                                    if (x[27] <= -11226.0) {
                                                        votes[1] += 1;
                                                    }

                                                    else {
                                                        if (x[8] <= 1422.0) {
                                                            votes[0] += 1;
                                                        }

                                                        else {
                                                            votes[1] += 1;
                                                        }
                                                    }
                                                }

                                                else {
                                                    votes[0] += 1;
                                                }
                                            }
                                        }

                                        else {
                                            votes[1] += 1;
                                        }
                                    }
                                }
                            }
                        }

                        else {
                            if (x[4] <= -82.0) {
                                votes[1] += 1;
                            }

                            else {
                                if (x[27] <= 1510.0) {
                                    if (x[27] <= -926.0) {
                                        votes[1] += 1;
                                    }

                                    else {
                                        votes[0] += 1;
                                    }
                                }

                                else {
                                    votes[1] += 1;
                                }
                            }
                        }

                        // tree #9
                        if (x[1] <= -546.0) {
                            if (x[7] <= -1414.0) {
                                votes[1] += 1;
                            }

                            else {
                                if (x[28] <= 120.0) {
                                    if (x[25] <= 6478.0) {
                                        if (x[25] <= -2760.0) {
                                            votes[1] += 1;
                                        }

                                        else {
                                            if (x[17] <= 2508.0) {
                                                votes[0] += 1;
                                            }

                                            else {
                                                if (x[14] <= 3554.0) {
                                                    votes[1] += 1;
                                                }

                                                else {
                                                    votes[0] += 1;
                                                }
                                            }
                                        }
                                    }

                                    else {
                                        votes[1] += 1;
                                    }
                                }

                                else {
                                    votes[1] += 1;
                                }
                            }
                        }

                        else {
                            if (x[3] <= 5762.0) {
                                if (x[0] <= 2620.0) {
                                    if (x[13] <= 3786.0) {
                                        if (x[9] <= -12706.0) {
                                            votes[1] += 1;
                                        }

                                        else {
                                            if (x[7] <= 1886.0) {
                                                if (x[21] <= 18608.0) {
                                                    votes[0] += 1;
                                                }

                                                else {
                                                    if (x[29] <= 3766.0) {
                                                        votes[0] += 1;
                                                    }

                                                    else {
                                                        votes[1] += 1;
                                                    }
                                                }
                                            }

                                            else {
                                                if (x[19] <= 710.0) {
                                                    votes[0] += 1;
                                                }

                                                else {
                                                    votes[1] += 1;
                                                }
                                            }
                                        }
                                    }

                                    else {
                                        if (x[12] <= -15470.0) {
                                            votes[0] += 1;
                                        }

                                        else {
                                            votes[1] += 1;
                                        }
                                    }
                                }

                                else {
                                    if (x[29] <= 586.0) {
                                        if (x[1] <= 1362.0) {
                                            votes[0] += 1;
                                        }

                                        else {
                                            if (x[29] <= -706.0) {
                                                votes[1] += 1;
                                            }

                                            else {
                                                votes[0] += 1;
                                            }
                                        }
                                    }

                                    else {
                                        if (x[2] <= -10384.0) {
                                            if (x[3] <= -1814.0) {
                                                votes[1] += 1;
                                            }

                                            else {
                                                votes[0] += 1;
                                            }
                                        }

                                        else {
                                            votes[1] += 1;
                                        }
                                    }
                                }
                            }

                            else {
                                if (x[18] <= 520.0) {
                                    if (x[16] <= -1516.0) {
                                        votes[1] += 1;
                                    }

                                    else {
                                        if (x[14] <= 262.0) {
                                            votes[0] += 1;
                                        }

                                        else {
                                            if (x[3] <= 7924.0) {
                                                votes[0] += 1;
                                            }

                                            else {
                                                votes[1] += 1;
                                            }
                                        }
                                    }
                                }

                                else {
                                    votes[1] += 1;
                                }
                            }
                        }

                        // tree #10
                        if (x[6] <= -6680.0) {
                            if (x[20] <= -804.0) {
                                votes[1] += 1;
                            }

                            else {
                                if (x[11] <= -2826.0) {
                                    votes[1] += 1;
                                }

                                else {
                                    if (x[29] <= 1034.0) {
                                        if (x[20] <= 5312.0) {
                                            if (x[23] <= 1686.0) {
                                                votes[0] += 1;
                                            }

                                            else {
                                                votes[1] += 1;
                                            }
                                        }

                                        else {
                                            votes[1] += 1;
                                        }
                                    }

                                    else {
                                        votes[1] += 1;
                                    }
                                }
                            }
                        }

                        else {
                            if (x[9] <= -1916.0) {
                                if (x[19] <= 1714.0) {
                                    if (x[19] <= -1034.0) {
                                        if (x[5] <= -150.0) {
                                            votes[1] += 1;
                                        }

                                        else {
                                            if (x[28] <= 886.0) {
                                                votes[0] += 1;
                                            }

                                            else {
                                                votes[1] += 1;
                                            }
                                        }
                                    }

                                    else {
                                        if (x[28] <= -992.0) {
                                            votes[1] += 1;
                                        }

                                        else {
                                            if (x[21] <= 10716.0) {
                                                votes[0] += 1;
                                            }

                                            else {
                                                votes[1] += 1;
                                            }
                                        }
                                    }
                                }

                                else {
                                    votes[1] += 1;
                                }
                            }

                            else {
                                if (x[5] <= 2822.0) {
                                    if (x[10] <= 3470.0) {
                                        if (x[1] <= 10002.0) {
                                            if (x[21] <= -19427.5) {
                                                votes[1] += 1;
                                            }

                                            else {
                                                if (x[10] <= -9204.0) {
                                                    votes[1] += 1;
                                                }

                                                else {
                                                    if (x[27] <= -8688.0) {
                                                        if (x[14] <= 2140.0) {
                                                            votes[0] += 1;
                                                        }

                                                        else {
                                                            votes[1] += 1;
                                                        }
                                                    }

                                                    else {
                                                        votes[0] += 1;
                                                    }
                                                }
                                            }
                                        }

                                        else {
                                            votes[1] += 1;
                                        }
                                    }

                                    else {
                                        votes[1] += 1;
                                    }
                                }

                                else {
                                    if (x[9] <= 1414.0) {
                                        if (x[22] <= -1202.0) {
                                            votes[1] += 1;
                                        }

                                        else {
                                            votes[0] += 1;
                                        }
                                    }

                                    else {
                                        if (x[13] <= -472.0) {
                                            votes[1] += 1;
                                        }

                                        else {
                                            if (x[18] <= 688.0) {
                                                votes[0] += 1;
                                            }

                                            else {
                                                votes[1] += 1;
                                            }
                                        }
                                    }
                                }
                            }
                        }

                        // tree #11
                        if (x[24] <= -11440.0) {
                            if (x[28] <= -136.0) {
                                if (x[5] <= -1102.0) {
                                    votes[1] += 1;
                                }

                                else {
                                    if (x[1] <= -5924.0) {
                                        votes[1] += 1;
                                    }

                                    else {
                                        votes[0] += 1;
                                    }
                                }
                            }

                            else {
                                votes[1] += 1;
                            }
                        }

                        else {
                            if (x[3] <= -3516.0) {
                                if (x[4] <= -1518.0) {
                                    votes[1] += 1;
                                }

                                else {
                                    if (x[13] <= -1420.0) {
                                        votes[1] += 1;
                                    }

                                    else {
                                        if (x[18] <= -4340.0) {
                                            votes[1] += 1;
                                        }

                                        else {
                                            if (x[6] <= 6606.0) {
                                                votes[0] += 1;
                                            }

                                            else {
                                                if (x[13] <= 186.0) {
                                                    votes[0] += 1;
                                                }

                                                else {
                                                    votes[1] += 1;
                                                }
                                            }
                                        }
                                    }
                                }
                            }

                            else {
                                if (x[8] <= 1352.0) {
                                    if (x[1] <= 1302.0) {
                                        if (x[4] <= 6478.0) {
                                            if (x[12] <= -10088.0) {
                                                if (x[9] <= 3642.0) {
                                                    votes[0] += 1;
                                                }

                                                else {
                                                    votes[1] += 1;
                                                }
                                            }

                                            else {
                                                if (x[19] <= 9070.0) {
                                                    votes[0] += 1;
                                                }

                                                else {
                                                    votes[1] += 1;
                                                }
                                            }
                                        }

                                        else {
                                            votes[1] += 1;
                                        }
                                    }

                                    else {
                                        if (x[13] <= 2572.0) {
                                            if (x[21] <= -10882.0) {
                                                votes[1] += 1;
                                            }

                                            else {
                                                votes[0] += 1;
                                            }
                                        }

                                        else {
                                            votes[1] += 1;
                                        }
                                    }
                                }

                                else {
                                    if (x[23] <= -1468.0) {
                                        votes[1] += 1;
                                    }

                                    else {
                                        if (x[5] <= -4068.0) {
                                            if (x[9] <= -3444.0) {
                                                if (x[8] <= 12532.0) {
                                                    votes[0] += 1;
                                                }

                                                else {
                                                    votes[1] += 1;
                                                }
                                            }

                                            else {
                                                votes[1] += 1;
                                            }
                                        }

                                        else {
                                            if (x[23] <= 2504.0) {
                                                votes[0] += 1;
                                            }

                                            else {
                                                votes[1] += 1;
                                            }
                                        }
                                    }
                                }
                            }
                        }

                        // tree #12
                        if (x[1] <= -1122.0) {
                            if (x[24] <= -3234.0) {
                                votes[1] += 1;
                            }

                            else {
                                if (x[13] <= -1458.0) {
                                    votes[1] += 1;
                                }

                                else {
                                    if (x[29] <= 1196.0) {
                                        if (x[19] <= -2928.0) {
                                            votes[1] += 1;
                                        }

                                        else {
                                            if (x[26] <= 4450.0) {
                                                votes[0] += 1;
                                            }

                                            else {
                                                votes[1] += 1;
                                            }
                                        }
                                    }

                                    else {
                                        votes[1] += 1;
                                    }
                                }
                            }
                        }

                        else {
                            if (x[18] <= 6526.0) {
                                if (x[28] <= 7886.0) {
                                    if (x[1] <= 1716.0) {
                                        if (x[12] <= -4154.0) {
                                            if (x[3] <= 8236.0) {
                                                if (x[2] <= -3292.0) {
                                                    votes[1] += 1;
                                                }

                                                else {
                                                    votes[0] += 1;
                                                }
                                            }

                                            else {
                                                votes[1] += 1;
                                            }
                                        }

                                        else {
                                            if (x[8] <= -8872.0) {
                                                if (x[10] <= -434.0) {
                                                    votes[1] += 1;
                                                }

                                                else {
                                                    votes[0] += 1;
                                                }
                                            }

                                            else {
                                                if (x[11] <= -8872.0) {
                                                    if (x[22] <= -464.0) {
                                                        votes[1] += 1;
                                                    }

                                                    else {
                                                        votes[0] += 1;
                                                    }
                                                }

                                                else {
                                                    votes[0] += 1;
                                                }
                                            }
                                        }
                                    }

                                    else {
                                        if (x[21] <= 104.0) {
                                            if (x[29] <= 2142.0) {
                                                if (x[11] <= -5643.5) {
                                                    votes[1] += 1;
                                                }

                                                else {
                                                    votes[0] += 1;
                                                }
                                            }

                                            else {
                                                votes[1] += 1;
                                            }
                                        }

                                        else {
                                            votes[1] += 1;
                                        }
                                    }
                                }

                                else {
                                    votes[1] += 1;
                                }
                            }

                            else {
                                if (x[0] <= 5762.0) {
                                    if (x[13] <= 1004.0) {
                                        if (x[3] <= -12124.0) {
                                            votes[1] += 1;
                                        }

                                        else {
                                            votes[0] += 1;
                                        }
                                    }

                                    else {
                                        votes[1] += 1;
                                    }
                                }

                                else {
                                    votes[1] += 1;
                                }
                            }
                        }

                        // tree #13
                        if (x[7] <= -1334.0) {
                            if (x[27] <= 2414.0) {
                                if (x[3] <= -6580.0) {
                                    votes[1] += 1;
                                }

                                else {
                                    if (x[7] <= -4420.0) {
                                        votes[1] += 1;
                                    }

                                    else {
                                        if (x[6] <= 746.0) {
                                            if (x[23] <= 15938.0) {
                                                votes[1] += 1;
                                            }

                                            else {
                                                votes[0] += 1;
                                            }
                                        }

                                        else {
                                            votes[0] += 1;
                                        }
                                    }
                                }
                            }

                            else {
                                votes[1] += 1;
                            }
                        }

                        else {
                            if (x[4] <= -1018.0) {
                                if (x[22] <= 28.0) {
                                    if (x[16] <= -476.0) {
                                        votes[1] += 1;
                                    }

                                    else {
                                        if (x[16] <= 2684.0) {
                                            votes[0] += 1;
                                        }

                                        else {
                                            if (x[19] <= -5186.0) {
                                                if (x[22] <= -8578.0) {
                                                    votes[1] += 1;
                                                }

                                                else {
                                                    votes[0] += 1;
                                                }
                                            }

                                            else {
                                                votes[1] += 1;
                                            }
                                        }
                                    }
                                }

                                else {
                                    votes[1] += 1;
                                }
                            }

                            else {
                                if (x[21] <= 7769.5) {
                                    if (x[22] <= 9104.0) {
                                        if (x[18] <= -16586.0) {
                                            votes[1] += 1;
                                        }

                                        else {
                                            if (x[18] <= 20390.0) {
                                                if (x[1] <= -11012.0) {
                                                    votes[1] += 1;
                                                }

                                                else {
                                                    if (x[11] <= -8872.0) {
                                                        if (x[6] <= -3436.0) {
                                                            votes[1] += 1;
                                                        }

                                                        else {
                                                            votes[0] += 1;
                                                        }
                                                    }

                                                    else {
                                                        votes[0] += 1;
                                                    }
                                                }
                                            }

                                            else {
                                                votes[1] += 1;
                                            }
                                        }
                                    }

                                    else {
                                        votes[1] += 1;
                                    }
                                }

                                else {
                                    if (x[4] <= 1050.0) {
                                        if (x[12] <= -3436.0) {
                                            votes[1] += 1;
                                        }

                                        else {
                                            votes[0] += 1;
                                        }
                                    }

                                    else {
                                        votes[1] += 1;
                                    }
                                }
                            }
                        }

                        // tree #14
                        if (x[20] <= -6350.0) {
                            if (x[23] <= -14.0) {
                                if (x[1] <= -438.0) {
                                    votes[1] += 1;
                                }

                                else {
                                    if (x[14] <= 2632.0) {
                                        if (x[11] <= 9540.0) {
                                            votes[0] += 1;
                                        }

                                        else {
                                            votes[1] += 1;
                                        }
                                    }

                                    else {
                                        votes[1] += 1;
                                    }
                                }
                            }

                            else {
                                votes[1] += 1;
                            }
                        }

                        else {
                            if (x[26] <= -4784.0) {
                                if (x[2] <= -1784.0) {
                                    votes[1] += 1;
                                }

                                else {
                                    if (x[2] <= 252.0) {
                                        votes[0] += 1;
                                    }

                                    else {
                                        if (x[29] <= -908.0) {
                                            votes[0] += 1;
                                        }

                                        else {
                                            votes[1] += 1;
                                        }
                                    }
                                }
                            }

                            else {
                                if (x[23] <= -2712.0) {
                                    if (x[4] <= -844.0) {
                                        votes[1] += 1;
                                    }

                                    else {
                                        if (x[26] <= 7560.0) {
                                            if (x[4] <= 3196.0) {
                                                votes[0] += 1;
                                            }

                                            else {
                                                votes[1] += 1;
                                            }
                                        }

                                        else {
                                            if (x[4] <= 572.0) {
                                                votes[0] += 1;
                                            }

                                            else {
                                                votes[1] += 1;
                                            }
                                        }
                                    }
                                }

                                else {
                                    if (x[2] <= -9002.0) {
                                        if (x[13] <= -478.0) {
                                            votes[1] += 1;
                                        }

                                        else {
                                            if (x[3] <= 242.0) {
                                                votes[0] += 1;
                                            }

                                            else {
                                                votes[1] += 1;
                                            }
                                        }
                                    }

                                    else {
                                        if (x[14] <= -8290.0) {
                                            if (x[3] <= -3740.0) {
                                                votes[1] += 1;
                                            }

                                            else {
                                                if (x[3] <= 10496.0) {
                                                    votes[0] += 1;
                                                }

                                                else {
                                                    votes[1] += 1;
                                                }
                                            }
                                        }

                                        else {
                                            if (x[0] <= -28456.0) {
                                                votes[1] += 1;
                                            }

                                            else {
                                                if (x[17] <= -17548.0) {
                                                    votes[1] += 1;
                                                }

                                                else {
                                                    if (x[7] <= -2868.0) {
                                                        votes[1] += 1;
                                                    }

                                                    else {
                                                        if (x[27] <= -6566.0) {
                                                            if (x[13] <= 222.0) {
                                                                votes[0] += 1;
                                                            }

                                                            else {
                                                                votes[1] += 1;
                                                            }
                                                        }

                                                        else {
                                                            votes[0] += 1;
                                                        }
                                                    }
                                                }
                                            }
                                        }
                                    }
                                }
                            }
                        }

                        // tree #15
                        if (x[1] <= 1708.0) {
                            if (x[18] <= -6608.0) {
                                if (x[8] <= 2990.0) {
                                    if (x[0] <= -3074.0) {
                                        if (x[22] <= -6088.0) {
                                            if (x[21] <= 12324.0) {
                                                votes[0] += 1;
                                            }

                                            else {
                                                votes[1] += 1;
                                            }
                                        }

                                        else {
                                            votes[1] += 1;
                                        }
                                    }

                                    else {
                                        if (x[11] <= 350.0) {
                                            if (x[0] <= 722.0) {
                                                votes[0] += 1;
                                            }

                                            else {
                                                votes[1] += 1;
                                            }
                                        }

                                        else {
                                            votes[1] += 1;
                                        }
                                    }
                                }

                                else {
                                    votes[1] += 1;
                                }
                            }

                            else {
                                if (x[1] <= -1332.0) {
                                    if (x[28] <= -722.0) {
                                        votes[1] += 1;
                                    }

                                    else {
                                        if (x[25] <= -916.0) {
                                            votes[1] += 1;
                                        }

                                        else {
                                            if (x[14] <= -676.0) {
                                                votes[1] += 1;
                                            }

                                            else {
                                                if (x[25] <= 6900.0) {
                                                    votes[0] += 1;
                                                }

                                                else {
                                                    votes[1] += 1;
                                                }
                                            }
                                        }
                                    }
                                }

                                else {
                                    if (x[16] <= -620.0) {
                                        if (x[10] <= 242.0) {
                                            if (x[20] <= 6670.0) {
                                                votes[0] += 1;
                                            }

                                            else {
                                                votes[1] += 1;
                                            }
                                        }

                                        else {
                                            if (x[16] <= -2256.0) {
                                                if (x[2] <= -922.0) {
                                                    votes[1] += 1;
                                                }

                                                else {
                                                    votes[0] += 1;
                                                }
                                            }

                                            else {
                                                votes[1] += 1;
                                            }
                                        }
                                    }

                                    else {
                                        if (x[6] <= -11886.0) {
                                            votes[1] += 1;
                                        }

                                        else {
                                            if (x[15] <= -22568.0) {
                                                votes[1] += 1;
                                            }

                                            else {
                                                if (x[8] <= -9270.0) {
                                                    if (x[0] <= -10350.0) {
                                                        votes[1] += 1;
                                                    }

                                                    else {
                                                        votes[0] += 1;
                                                    }
                                                }

                                                else {
                                                    votes[0] += 1;
                                                }
                                            }
                                        }
                                    }
                                }
                            }
                        }

                        else {
                            if (x[26] <= -1472.0) {
                                votes[1] += 1;
                            }

                            else {
                                if (x[0] <= 2938.0) {
                                    if (x[15] <= -2184.0) {
                                        votes[1] += 1;
                                    }

                                    else {
                                        if (x[24] <= -998.0) {
                                            votes[1] += 1;
                                        }

                                        else {
                                            votes[0] += 1;
                                        }
                                    }
                                }

                                else {
                                    votes[1] += 1;
                                }
                            }
                        }

                        // tree #16
                        if (x[28] <= -942.0) {
                            if (x[19] <= 1380.0) {
                                if (x[0] <= 2852.0) {
                                    if (x[25] <= 7008.0) {
                                        if (x[1] <= -868.0) {
                                            votes[1] += 1;
                                        }

                                        else {
                                            if (x[28] <= -11270.0) {
                                                votes[1] += 1;
                                            }

                                            else {
                                                votes[0] += 1;
                                            }
                                        }
                                    }

                                    else {
                                        votes[1] += 1;
                                    }
                                }

                                else {
                                    if (x[22] <= 6244.0) {
                                        votes[1] += 1;
                                    }

                                    else {
                                        if (x[17] <= -480.0) {
                                            votes[1] += 1;
                                        }

                                        else {
                                            votes[0] += 1;
                                        }
                                    }
                                }
                            }

                            else {
                                votes[1] += 1;
                            }
                        }

                        else {
                            if (x[13] <= 4932.0) {
                                if (x[28] <= 1244.0) {
                                    if (x[17] <= 28112.0) {
                                        if (x[24] <= 11258.0) {
                                            if (x[15] <= -24814.0) {
                                                votes[1] += 1;
                                            }

                                            else {
                                                if (x[22] <= 1994.0) {
                                                    if (x[26] <= -8328.0) {
                                                        if (x[4] <= -1476.0) {
                                                            votes[1] += 1;
                                                        }

                                                        else {
                                                            votes[0] += 1;
                                                        }
                                                    }

                                                    else {
                                                        votes[0] += 1;
                                                    }
                                                }

                                                else {
                                                    if (x[9] <= 4422.0) {
                                                        votes[0] += 1;
                                                    }

                                                    else {
                                                        votes[1] += 1;
